======= HiddenWeights_1 (input?idden1) =======
{
  {-2.646592, 0.449334, 1.979591, -5.561250, -3.656616, -2.346885, 0.232390, 2.074890, 4.797825, -0.187165, -0.032777, -1.632287},
  {-0.199852, 0.875904, 1.206833, -0.184314, 1.253679, -0.064097, -1.112763, -0.433562, 0.326555, 1.829727, -0.690465, -0.748640},
  {-0.243555, 1.941899, 4.633582, 0.642362, -0.170375, 0.586379, -0.151856, -1.556208, 0.582663, -1.317683, -0.207739, -0.669797},
  {-1.021070, -0.639811, -0.924288, 0.930771, -0.841575, -0.494944, 1.939694, 0.562383, 0.096991, 0.170102, 0.333239, -0.772647},
  {0.201431, 0.589636, -1.720126, 0.712668, -0.346296, 1.065957, -0.722354, -0.690334, 0.560790, 0.414970, 2.897407, -0.307957},
  {0.408744, 3.272007, -0.281927, 0.206950, -0.059930, 0.047755, -0.541429, -1.035535, -0.488494, -2.018636, -0.051892, -0.973009},
  {2.113391, -0.655596, 2.636628, -2.502053, 1.345505, -2.040406, 1.010435, 0.387639, 1.430787, 1.794315, -0.984144, 1.503089}
}

======= HiddenWeights_2 (Hidden1?idden2) =======
{
  {-1.001621, 1.916378, -2.239941, 0.203468, -2.173871, 0.257543, 0.520230, -1.281742, -0.351810, -1.459108, 1.808861, -0.366128},
  {-0.728400, -1.920602, -0.580382, 1.123456, 1.267943, 0.723094, 0.133422, 1.984102, 1.318699, -0.018272, -1.407537, -0.866761},
  {-1.514223, 2.539660, -2.263222, 2.754137, -1.904285, 1.923961, -0.500558, 2.489906, 0.600253, -0.493168, -0.195909, -1.701980},
  {2.016635, -0.209069, 2.756285, -2.819859, -0.596610, -2.715334, 0.058266, -1.598353, 1.203528, -0.296017, 2.871763, 2.772932},
  {-1.288949, -0.482394, -1.844603, 0.072845, -0.865832, -0.815329, 2.996217, -0.550334, 0.186383, -1.508809, 2.393192, 0.734648},
  {-0.267226, 0.442852, 0.319746, -1.302821, -0.185397, -1.854094, -0.103725, 0.932997, 2.080929, -0.510479, 0.718060, 1.851871},
  {1.454973, 0.471119, 2.159424, 0.197553, 0.122127, 1.370671, -1.577952, -1.108277, -1.916681, 1.233812, -0.399856, -0.598698},
  {0.767374, -2.959205, 0.622695, 1.013937, 2.166161, 1.279646, 1.263835, 0.372067, -1.674684, 1.212583, -0.824127, -2.019235},
  {-0.049346, -0.014934, 0.596492, 2.018657, 0.237514, 2.907670, 0.342141, 2.699608, -1.726514, 0.180525, -4.525601, -2.444927},
  {0.257054, 2.044812, -0.131186, 0.156643, -1.746953, 0.345081, -1.005966, -1.486817, -1.473826, -0.476107, -0.141499, -0.115517},
  {1.122875, -2.323339, 1.812863, -1.445181, 0.795546, -0.521463, 1.127160, -0.130424, -0.932702, 0.210536, -1.621854, 0.310695},
  {-0.715523, 1.889837, -0.812061, 0.434732, -1.174030, -0.610079, -0.236754, -0.943768, -0.227516, -0.772033, 0.730803, 0.006197},
  {0.691787, 0.482188, 1.302898, 0.401587, -0.402851, 1.327854, 0.212899, 0.730767, -1.023032, 0.089055, -0.744356, -0.829958}
}

======= OutputWeights (Hidden2?utput) =======
{
  {0.846524, 0.592089, -2.710587, -1.924702, -2.188102, 1.404300},
  {3.208446, -4.720514, 1.045846, -0.246153, 0.013092, -0.033146},
  {2.567898, 0.769685, -3.239955, -3.086234, -2.825844, 1.708715},
  {-0.218909, -0.726727, 1.346488, 2.243645, -1.126608, -3.904686},
  {-1.785459, 2.975681, -3.094161, -1.207644, -0.498845, -1.418668},
  {0.585221, 0.786198, 1.547308, 2.277343, -3.305528, -2.998830},
  {-4.655330, 0.222559, 0.828747, -1.622752, -0.630965, 0.299496},
  {-1.312405, 0.009997, 1.823718, -3.213641, 0.509539, -4.786567},
  {-0.203152, -0.618108, -1.107775, -1.955110, 3.486835, -2.495355},
  {0.930623, 0.434550, -2.250034, -0.820695, -1.530430, -0.643084},
  {-3.800600, -2.286781, -4.877174, 5.176622, 1.297012, 1.824962},
  {-1.567449, -1.119032, -2.992899, -3.125839, 2.490382, 1.952543},
  {-1.396046, -0.471910, -1.888812, -2.112668, -1.118393, 0.059163}
}